<?xml version="1.0"?>
<opencv_storage>
<cascade>
  <stageType>BOOST</stageType>
  <featureType>HAAR</featureType>
  <height>50</height>
  <width>50</width>
  <stageParams>
    <boostType>GAB</boostType>
    <minHitRate>9.9500000476837158e-01</minHitRate>
    <maxFalseAlarm>5.0000000000000000e-01</maxFalseAlarm>
    <weightTrimRate>9.4999999999999996e-01</weightTrimRate>
    <maxDepth>1</maxDepth>
    <maxWeakCount>100</maxWeakCount></stageParams>
  <featureParams>
    <maxCatCount>0</maxCatCount>
    <featSize>1</featSize>
    <mode>BASIC</mode></featureParams>
  <stageNum>7</stageNum>
  <stages>
    <!-- stage 0 -->
    <_>
      <maxWeakCount>12</maxWeakCount>
      <stageThreshold>-1.7984346151351929e+00</stageThreshold>
      <weakClassifiers>
        <_>
          <internalNodes>
            0 -1 119 -3.3107083290815353e-02</internalNodes>
          <leafValues>
            4.2465752363204956e-01 -7.7021509408950806e-01</leafValues></_>
        <_>
          <internalNodes>
            0 -1 93 -4.9409948289394379e-02</internalNodes>
          <leafValues>
            4.0643221139907837e-01 -6.8858003616333008e-01</leafValues></_>
        <_>
          <internalNodes>
            0 -1 7 6.5905064344406128e-02</internalNodes>
          <leafValues>
            -4.2293429374694824e-01 3.9918902516365051e-01</leafValues></_>
        <_>
          <internalNodes>
            0 -1 43 4.1235227137804031e-02</internalNodes>
          <leafValues>
            -3.2384279370307922e-01 3.5063308477401733e-01</leafValues></_>
        <_>
          <internalNodes>
            0 -1 111 -1.2329620122909546e-01</internalNodes>
          <leafValues>
            1.7878855764865875e-01 -4.9988147616386414e-01</leafValues></_>
        <_>
          <internalNodes>
            0 -1 131 -8.2689359260257334e-05</internalNodes>
          <leafValues>
            -5.8990561962127686e-01 1.6455376148223877e-01</leafValues></_>
        <_>
          <internalNodes>
            0 -1 131 3.8875725294928998e-05</internalNodes>
          <leafValues>
            2.1841853857040405e-01 -5.2310335636138916e-01</leafValues></_>
        <_>
          <internalNodes>
            0 -1 9 2.4624802172183990e-02</internalNodes>
          <leafValues>
            -2.0659461617469788e-01 4.9405455589294434e-01</leafValues></_>
        <_>
          <internalNodes>
            0 -1 63 4.1395563632249832e-02</internalNodes>
          <leafValues>
            -1.5330025553703308e-01 7.9806411266326904e-01</leafValues></_>
        <_>
          <internalNodes>
            0 -1 26 -2.3229373991489410e-01</internalNodes>
          <leafValues>
            -8.8531821966171265e-01 1.1017974466085434e-01</leafValues></_>
        <_>
          <internalNodes>
            0 -1 128 8.8780783116817474e-03</internalNodes>
          <leafValues>
            -1.7245270311832428e-01 4.9268174171447754e-01</leafValues></_>
        <_>
          <internalNodes>
            0 -1 133 9.2318579554557800e-03</internalNodes>
          <leafValues>
            -1.7286869883537292e-01 4.9934008717536926e-01</leafValues></_></weakClassifiers></_>
    <!-- stage 1 -->
    <_>
      <maxWeakCount>23</maxWeakCount>
      <stageThreshold>-2.0224874019622803e+00</stageThreshold>
      <weakClassifiers>
        <_>
          <internalNodes>
            0 -1 112 -2.2895824164152145e-02</internalNodes>
          <leafValues>
            1.4421768486499786e-01 -8.2596492767333984e-01</leafValues></_>
        <_>
          <internalNodes>
            0 -1 31 3.6773435771465302e-02</internalNodes>
          <leafValues>
            -5.4216998815536499e-01 3.1005358695983887e-01</leafValues></_>
        <_>
          <internalNodes>
            0 -1 51 -5.7962372899055481e-02</internalNodes>
          <leafValues>
            2.2634029388427734e-01 -4.5362764596939087e-01</leafValues></_>
        <_>
          <internalNodes>
            0 -1 61 5.0857178866863251e-02</internalNodes>
          <leafValues>
            -2.7707141637802124e-01 2.9853883385658264e-01</leafValues></_>
        <_>
          <internalNodes>
            0 -1 99 -7.9292431473731995e-03</internalNodes>
          <leafValues>
            5.5940300226211548e-01 -1.4303740859031677e-01</leafValues></_>
        <_>
          <internalNodes>
            0 -1 161 -8.0979848280549049e-03</internalNodes>
          <leafValues>
            4.7599595785140991e-01 -1.5814633667469025e-01</leafValues></_>
        <_>
          <internalNodes>
            0 -1 154 5.0710864365100861e-02</internalNodes>
          <leafValues>
            -1.2549950182437897e-01 7.2961395978927612e-01</leafValues></_>
        <_>
          <internalNodes>
            0 -1 73 -1.6271058470010757e-02</internalNodes>
          <leafValues>
            5.6723970174789429e-01 -1.4650748670101166e-01</leafValues></_>
        <_>
          <internalNodes>
            0 -1 121 -2.0209825015626848e-04</internalNodes>
          <leafValues>
            -5.5459940433502197e-01 1.7127433419227600e-01</leafValues></_>
        <_>
          <internalNodes>
            0 -1 122 1.1595746764214709e-04</internalNodes>
          <leafValues>
            1.1593563854694366e-01 -5.4584461450576782e-01</leafValues></_>
        <_>
          <internalNodes>
            0 -1 74 -4.8499125987291336e-03</internalNodes>
          <leafValues>
            4.6493050456047058e-01 -1.7063945531845093e-01</leafValues></_>
        <_>
          <internalNodes>
            0 -1 87 2.2539475932717323e-02</internalNodes>
          <leafValues>
            -1.0462661087512970e-01 6.6876775026321411e-01</leafValues></_>
        <_>
          <internalNodes>
            0 -1 5 1.0640876367688179e-02</internalNodes>
          <leafValues>
            -1.8949799239635468e-01 3.5645756125450134e-01</leafValues></_>
        <_>
          <internalNodes>
            0 -1 45 -4.9588019028306007e-03</internalNodes>
          <leafValues>
            4.3171921372413635e-01 -1.6455711424350739e-01</leafValues></_>
        <_>
          <internalNodes>
            0 -1 132 1.4656499028205872e-02</internalNodes>
          <leafValues>
            -8.8553816080093384e-02 6.2072592973709106e-01</leafValues></_>
        <_>
          <internalNodes>
            0 -1 101 -9.4786072149872780e-03</internalNodes>
          <leafValues>
            4.3678885698318481e-01 -1.4138655364513397e-01</leafValues></_>
        <_>
          <internalNodes>
            0 -1 52 -1.6340229660272598e-02</internalNodes>
          <leafValues>
            8.7107233703136444e-02 -8.4550118446350098e-01</leafValues></_>
        <_>
          <internalNodes>
            0 -1 178 -1.0339135304093361e-02</internalNodes>
          <leafValues>
            3.4542369842529297e-01 -1.8054515123367310e-01</leafValues></_>
        <_>
          <internalNodes>
            0 -1 162 4.4246567413210869e-03</internalNodes>
          <leafValues>
            -1.7925329506397247e-01 3.2920128107070923e-01</leafValues></_>
        <_>
          <internalNodes>
            0 -1 72 9.3478895723819733e-03</internalNodes>
          <leafValues>
            -1.3961055874824524e-01 3.8068327307701111e-01</leafValues></_>
        <_>
          <internalNodes>
            0 -1 16 1.2869903817772865e-02</internalNodes>
          <leafValues>
            -1.3253985345363617e-01 4.4940015673637390e-01</leafValues></_>
        <_>
          <internalNodes>
            0 -1 147 -7.5486837886273861e-05</internalNodes>
          <leafValues>
            -3.9308869838714600e-01 1.5629118680953979e-01</leafValues></_>
        <_>
          <internalNodes>
            0 -1 149 8.9153400040231645e-05</internalNodes>
          <leafValues>
            1.1673869192600250e-01 -5.1378583908081055e-01</leafValues></_></weakClassifiers></_>
    <!-- stage 2 -->
    <_>
      <maxWeakCount>25</maxWeakCount>
      <stageThreshold>-1.7361832857131958e+00</stageThreshold>
      <weakClassifiers>
        <_>
          <internalNodes>
            0 -1 92 -2.9636485502123833e-02</internalNodes>
          <leafValues>
            4.6808511018753052e-02 -7.5795245170593262e-01</leafValues></_>
        <_>
          <internalNodes>
            0 -1 79 6.2924876809120178e-02</internalNodes>
          <leafValues>
            -4.8541080951690674e-01 2.7632534503936768e-01</leafValues></_>
        <_>
          <internalNodes>
            0 -1 55 3.1419210135936737e-02</internalNodes>
          <leafValues>
            -3.0196869373321533e-01 3.2768994569778442e-01</leafValues></_>
        <_>
          <internalNodes>
            0 -1 22 -6.7309094592928886e-03</internalNodes>
          <leafValues>
            3.5535073280334473e-01 -2.4534952640533447e-01</leafValues></_>
        <_>
          <internalNodes>
            0 -1 28 1.0162535309791565e-01</internalNodes>
          <leafValues>
            1.4910724759101868e-01 -7.3605954647064209e-01</leafValues></_>
        <_>
          <internalNodes>
            0 -1 130 -1.5133435954339802e-04</internalNodes>
          <leafValues>
            -6.4885133504867554e-01 1.2262696027755737e-01</leafValues></_>
        <_>
          <internalNodes>
            0 -1 139 6.3941966800484806e-05</internalNodes>
          <leafValues>
            8.9042380452156067e-02 -7.1199089288711548e-01</leafValues></_>
        <_>
          <internalNodes>
            0 -1 86 4.6482302248477936e-02</internalNodes>
          <leafValues>
            -1.1527071148157120e-01 6.7390418052673340e-01</leafValues></_>
        <_>
          <internalNodes>
            0 -1 169 4.3924264609813690e-03</internalNodes>
          <leafValues>
            -1.6014309227466583e-01 4.6882572770118713e-01</leafValues></_>
        <_>
          <internalNodes>
            0 -1 153 1.3288116082549095e-02</internalNodes>
          <leafValues>
            -1.3050244748592377e-01 5.8144974708557129e-01</leafValues></_>
        <_>
          <internalNodes>
            0 -1 157 4.9958433955907822e-03</internalNodes>
          <leafValues>
            -1.5688882768154144e-01 3.7115320563316345e-01</leafValues></_>
        <_>
          <internalNodes>
            0 -1 110 -8.1854527816176414e-03</internalNodes>
          <leafValues>
            8.0503605306148529e-02 -5.9685397148132324e-01</leafValues></_>
        <_>
          <internalNodes>
            0 -1 58 6.0146395117044449e-03</internalNodes>
          <leafValues>
            -1.1611291766166687e-01 4.9294477701187134e-01</leafValues></_>
        <_>
          <internalNodes>
            0 -1 33 2.0480405539274216e-02</internalNodes>
          <leafValues>
            -1.5350969135761261e-01 3.8958761096000671e-01</leafValues></_>
        <_>
          <internalNodes>
            0 -1 117 1.9707432016730309e-02</internalNodes>
          <leafValues>
            -9.3716196715831757e-02 6.2471258640289307e-01</leafValues></_>
        <_>
          <internalNodes>
            0 -1 176 -5.1526594907045364e-03</internalNodes>
          <leafValues>
            2.2809493541717529e-01 -2.5319415330886841e-01</leafValues></_>
        <_>
          <internalNodes>
            0 -1 151 2.1640467457473278e-04</internalNodes>
          <leafValues>
            1.1025743186473846e-01 -4.7684884071350098e-01</leafValues></_>
        <_>
          <internalNodes>
            0 -1 90 -8.7536722421646118e-03</internalNodes>
          <leafValues>
            4.5179986953735352e-01 -1.2999953329563141e-01</leafValues></_>
        <_>
          <internalNodes>
            0 -1 2 1.8809366971254349e-02</internalNodes>
          <leafValues>
            -1.7011860013008118e-01 3.1227877736091614e-01</leafValues></_>
        <_>
          <internalNodes>
            0 -1 114 -2.2978253662586212e-02</internalNodes>
          <leafValues>
            4.8815840482711792e-01 -1.0335754603147507e-01</leafValues></_>
        <_>
          <internalNodes>
            0 -1 84 1.0518235154449940e-02</internalNodes>
          <leafValues>
            -9.1733783483505249e-02 5.1825439929962158e-01</leafValues></_>
        <_>
          <internalNodes>
            0 -1 13 -3.7250801688060164e-04</internalNodes>
          <leafValues>
            -4.4341334700584412e-01 1.1148865520954132e-01</leafValues></_>
        <_>
          <internalNodes>
            0 -1 145 -5.5777105444576591e-05</internalNodes>
          <leafValues>
            -5.1600182056427002e-01 8.0175027251243591e-02</leafValues></_>
        <_>
          <internalNodes>
            0 -1 134 9.0885157987941056e-05</internalNodes>
          <leafValues>
            1.0419280827045441e-01 -4.7505569458007813e-01</leafValues></_>
        <_>
          <internalNodes>
            0 -1 25 -1.3639429584145546e-02</internalNodes>
          <leafValues>
            5.0263392925262451e-01 -1.0348664969205856e-01</leafValues></_></weakClassifiers></_>
    <!-- stage 3 -->
    <_>
      <maxWeakCount>27</maxWeakCount>
      <stageThreshold>-1.6752742528915405e+00</stageThreshold>
      <weakClassifiers>
        <_>
          <internalNodes>
            0 -1 40 2.7427360415458679e-02</internalNodes>
          <leafValues>
            -7.3972600698471069e-01 4.4275773689150810e-03</leafValues></_>
        <_>
          <internalNodes>
            0 -1 113 -4.8665605485439301e-02</internalNodes>
          <leafValues>
            2.3440477252006531e-01 -4.6068844199180603e-01</leafValues></_>
        <_>
          <internalNodes>
            0 -1 70 -7.2392120957374573e-02</internalNodes>
          <leafValues>
            2.0105640590190887e-01 -3.9987808465957642e-01</leafValues></_>
        <_>
          <internalNodes>
            0 -1 20 7.6749282889068127e-03</internalNodes>
          <leafValues>
            -2.0000042021274567e-01 3.7826943397521973e-01</leafValues></_>
        <_>
          <internalNodes>
            0 -1 168 5.4868953302502632e-03</internalNodes>
          <leafValues>
            -1.4098608493804932e-01 4.8962172865867615e-01</leafValues></_>
        <_>
          <internalNodes>
            0 -1 136 -7.4244234710931778e-03</internalNodes>
          <leafValues>
            4.6981000900268555e-01 -1.4584112167358398e-01</leafValues></_>
        <_>
          <internalNodes>
            0 -1 152 3.5992229823023081e-03</internalNodes>
          <leafValues>
            -1.2454432994127274e-01 4.7952839732170105e-01</leafValues></_>
        <_>
          <internalNodes>
            0 -1 50 8.5489183664321899e-02</internalNodes>
          <leafValues>
            7.5650148093700409e-02 -6.7454695701599121e-01</leafValues></_>
        <_>
          <internalNodes>
            0 -1 12 -1.8369314074516296e-01</internalNodes>
          <leafValues>
            -6.5771585702896118e-01 8.3541706204414368e-02</leafValues></_>
        <_>
          <internalNodes>
            0 -1 138 2.0221009617671371e-04</internalNodes>
          <leafValues>
            1.0162293910980225e-01 -6.1507195234298706e-01</leafValues></_>
        <_>
          <internalNodes>
            0 -1 141 -4.7702589654363692e-05</internalNodes>
          <leafValues>
            -5.3442001342773438e-01 1.5404856204986572e-01</leafValues></_>
        <_>
          <internalNodes>
            0 -1 76 -3.7129637785255909e-03</internalNodes>
          <leafValues>
            4.3761593103408813e-01 -1.5551410615444183e-01</leafValues></_>
        <_>
          <internalNodes>
            0 -1 48 7.2008576244115829e-03</internalNodes>
          <leafValues>
            -1.4222289621829987e-01 4.6928381919860840e-01</leafValues></_>
        <_>
          <internalNodes>
            0 -1 108 -2.6903629302978516e-02</internalNodes>
          <leafValues>
            6.5039080381393433e-01 -1.0161239653825760e-01</leafValues></_>
        <_>
          <internalNodes>
            0 -1 89 -3.0980533920228481e-03</internalNodes>
          <leafValues>
            4.5639976859092712e-01 -9.5461465418338776e-02</leafValues></_>
        <_>
          <internalNodes>
            0 -1 95 4.9319311976432800e-02</internalNodes>
          <leafValues>
            -8.0464817583560944e-02 6.4762890338897705e-01</leafValues></_>
        <_>
          <internalNodes>
            0 -1 5 1.0634891688823700e-02</internalNodes>
          <leafValues>
            -1.9937299191951752e-01 2.4977546930313110e-01</leafValues></_>
        <_>
          <internalNodes>
            0 -1 47 7.0291210431605577e-04</internalNodes>
          <leafValues>
            1.0122742503881454e-01 -5.4638862609863281e-01</leafValues></_>
        <_>
          <internalNodes>
            0 -1 100 6.5879493951797485e-02</internalNodes>
          <leafValues>
            6.4417339861392975e-02 -6.3509535789489746e-01</leafValues></_>
        <_>
          <internalNodes>
            0 -1 23 -2.1069195866584778e-01</internalNodes>
          <leafValues>
            -7.3790627717971802e-01 5.2346676588058472e-02</leafValues></_>
        <_>
          <internalNodes>
            0 -1 109 -8.3088520914316177e-03</internalNodes>
          <leafValues>
            4.9120351672172546e-01 -1.1390327662229538e-01</leafValues></_>
        <_>
          <internalNodes>
            0 -1 115 1.1802517110481858e-04</internalNodes>
          <leafValues>
            1.2914010882377625e-01 -4.1350510716438293e-01</leafValues></_>
        <_>
          <internalNodes>
            0 -1 42 -1.6259273979812860e-03</internalNodes>
          <leafValues>
            -5.8100455999374390e-01 6.4601890742778778e-02</leafValues></_>
        <_>
          <internalNodes>
            0 -1 163 4.8996596597135067e-03</internalNodes>
          <leafValues>
            -1.1206690967082977e-01 4.2636072635650635e-01</leafValues></_>
        <_>
          <internalNodes>
            0 -1 175 -9.4614445697516203e-04</internalNodes>
          <leafValues>
            -6.7708027362823486e-01 7.2238527238368988e-02</leafValues></_>
        <_>
          <internalNodes>
            0 -1 180 -2.2308151237666607e-03</internalNodes>
          <leafValues>
            2.2787095606327057e-01 -2.0920848846435547e-01</leafValues></_>
        <_>
          <internalNodes>
            0 -1 54 4.6820743009448051e-03</internalNodes>
          <leafValues>
            -1.3290098309516907e-01 3.6143103241920471e-01</leafValues></_></weakClassifiers></_>
    <!-- stage 4 -->
    <_>
      <maxWeakCount>30</maxWeakCount>
      <stageThreshold>-1.7636642456054688e+00</stageThreshold>
      <weakClassifiers>
        <_>
          <internalNodes>
            0 -1 97 1.5991782769560814e-02</internalNodes>
          <leafValues>
            -7.0279973745346069e-01 9.3209054321050644e-03</leafValues></_>
        <_>
          <internalNodes>
            0 -1 144 7.9199969768524170e-02</internalNodes>
          <leafValues>
            -2.2747971117496490e-01 6.5285533666610718e-01</leafValues></_>
        <_>
          <internalNodes>
            0 -1 6 7.1934245526790619e-02</internalNodes>
          <leafValues>
            -3.5999065637588501e-01 2.5713610649108887e-01</leafValues></_>
        <_>
          <internalNodes>
            0 -1 181 -3.0417302623391151e-03</internalNodes>
          <leafValues>
            -4.6809715032577515e-01 1.5541231632232666e-01</leafValues></_>
        <_>
          <internalNodes>
            0 -1 129 -6.6282469779253006e-03</internalNodes>
          <leafValues>
            1.5725871920585632e-01 -5.6919413805007935e-01</leafValues></_>
        <_>
          <internalNodes>
            0 -1 160 -6.3237482681870461e-03</internalNodes>
          <leafValues>
            3.7172016501426697e-01 -1.9847561419010162e-01</leafValues></_>
        <_>
          <internalNodes>
            0 -1 123 -2.2204223205335438e-04</internalNodes>
          <leafValues>
            -5.7061803340911865e-01 1.1176646500825882e-01</leafValues></_>
        <_>
          <internalNodes>
            0 -1 85 -2.5079241022467613e-03</internalNodes>
          <leafValues>
            4.0723884105682373e-01 -1.7050671577453613e-01</leafValues></_>
        <_>
          <internalNodes>
            0 -1 124 -3.6442190408706665e-02</internalNodes>
          <leafValues>
            6.0380017757415771e-01 -1.5710754692554474e-01</leafValues></_>
        <_>
          <internalNodes>
            0 -1 62 -1.4114102721214294e-01</internalNodes>
          <leafValues>
            -6.3983988761901855e-01 1.2169966101646423e-01</leafValues></_>
        <_>
          <internalNodes>
            0 -1 64 -1.7671409994363785e-02</internalNodes>
          <leafValues>
            5.4022133350372314e-01 -1.4562416076660156e-01</leafValues></_>
        <_>
          <internalNodes>
            0 -1 171 -1.0263554751873016e-02</internalNodes>
          <leafValues>
            6.2785232067108154e-01 -7.3628135025501251e-02</leafValues></_>
        <_>
          <internalNodes>
            0 -1 106 -1.3275444507598877e-02</internalNodes>
          <leafValues>
            5.9595721960067749e-01 -1.0821234434843063e-01</leafValues></_>
        <_>
          <internalNodes>
            0 -1 158 -6.9843130186200142e-03</internalNodes>
          <leafValues>
            4.7117730975151062e-01 -1.1766260117292404e-01</leafValues></_>
        <_>
          <internalNodes>
            0 -1 14 3.4090252593159676e-03</internalNodes>
          <leafValues>
            -2.6137244701385498e-01 2.2327847778797150e-01</leafValues></_>
        <_>
          <internalNodes>
            0 -1 137 1.7104261496569961e-04</internalNodes>
          <leafValues>
            7.2245717048645020e-02 -6.8230533599853516e-01</leafValues></_>
        <_>
          <internalNodes>
            0 -1 49 -6.1754804104566574e-02</internalNodes>
          <leafValues>
            -5.2182781696319580e-01 7.9472154378890991e-02</leafValues></_>
        <_>
          <internalNodes>
            0 -1 130 6.1554805142804980e-05</internalNodes>
          <leafValues>
            1.1464507877826691e-01 -3.8882428407669067e-01</leafValues></_>
        <_>
          <internalNodes>
            0 -1 75 -3.8381500635296106e-03</internalNodes>
          <leafValues>
            3.3120131492614746e-01 -1.4459933340549469e-01</leafValues></_>
        <_>
          <internalNodes>
            0 -1 21 -7.7245309948921204e-03</internalNodes>
          <leafValues>
            3.3493238687515259e-01 -1.5089912712574005e-01</leafValues></_>
        <_>
          <internalNodes>
            0 -1 83 5.0238043069839478e-02</internalNodes>
          <leafValues>
            -8.2481421530246735e-02 5.6411838531494141e-01</leafValues></_>
        <_>
          <internalNodes>
            0 -1 11 -2.2520557045936584e-02</internalNodes>
          <leafValues>
            3.0040100216865540e-01 -1.9146022200584412e-01</leafValues></_>
        <_>
          <internalNodes>
            0 -1 103 1.2305961921811104e-02</internalNodes>
          <leafValues>
            -1.0748778283596039e-01 4.3241772055625916e-01</leafValues></_>
        <_>
          <internalNodes>
            0 -1 164 -1.7654397524893284e-03</internalNodes>
          <leafValues>
            3.0475944280624390e-01 -1.5826997160911560e-01</leafValues></_>
        <_>
          <internalNodes>
            0 -1 0 -7.3067116318270564e-05</internalNodes>
          <leafValues>
            -4.0589237213134766e-01 1.0837992280721664e-01</leafValues></_>
        <_>
          <internalNodes>
            0 -1 0 8.0853867984842509e-05</internalNodes>
          <leafValues>
            1.1459521949291229e-01 -3.9590969681739807e-01</leafValues></_>
        <_>
          <internalNodes>
            0 -1 66 1.0392745025455952e-03</internalNodes>
          <leafValues>
            7.6962254941463470e-02 -5.3589421510696411e-01</leafValues></_>
        <_>
          <internalNodes>
            0 -1 37 6.4536826685070992e-03</internalNodes>
          <leafValues>
            -1.2720172107219696e-01 3.5925519466400146e-01</leafValues></_>
        <_>
          <internalNodes>
            0 -1 69 -8.3639035001397133e-03</internalNodes>
          <leafValues>
            5.0797557830810547e-01 -9.6410490572452545e-02</leafValues></_>
        <_>
          <internalNodes>
            0 -1 71 -5.4837968200445175e-03</internalNodes>
          <leafValues>
            5.1633244752883911e-01 -8.7035939097404480e-02</leafValues></_></weakClassifiers></_>
    <!-- stage 5 -->
    <_>
      <maxWeakCount>34</maxWeakCount>
      <stageThreshold>-1.6950790882110596e+00</stageThreshold>
      <weakClassifiers>
        <_>
          <internalNodes>
            0 -1 30 8.5456773638725281e-02</internalNodes>
          <leafValues>
            -4.5843136310577393e-01 5.9130436182022095e-01</leafValues></_>
        <_>
          <internalNodes>
            0 -1 118 -2.1100882440805435e-02</internalNodes>
          <leafValues>
            2.2168354690074921e-01 -5.6556957960128784e-01</leafValues></_>
        <_>
          <internalNodes>
            0 -1 91 -7.3513358831405640e-02</internalNodes>
          <leafValues>
            1.9091634452342987e-01 -4.2388659715652466e-01</leafValues></_>
        <_>
          <internalNodes>
            0 -1 126 -2.1284095942974091e-02</internalNodes>
          <leafValues>
            6.6078430414199829e-01 -7.4980430305004120e-02</leafValues></_>
        <_>
          <internalNodes>
            0 -1 140 -1.1529821495059878e-04</internalNodes>
          <leafValues>
            -5.6464678049087524e-01 1.2621568143367767e-01</leafValues></_>
        <_>
          <internalNodes>
            0 -1 116 -3.7197262048721313e-02</internalNodes>
          <leafValues>
            7.6616936922073364e-01 -8.3860434591770172e-02</leafValues></_>
        <_>
          <internalNodes>
            0 -1 77 6.4869429916143417e-03</internalNodes>
          <leafValues>
            -1.5281635522842407e-01 4.0987530350685120e-01</leafValues></_>
        <_>
          <internalNodes>
            0 -1 65 2.0609920844435692e-02</internalNodes>
          <leafValues>
            -1.0065786540508270e-01 6.3613468408584595e-01</leafValues></_>
        <_>
          <internalNodes>
            0 -1 59 3.7586244288831949e-03</internalNodes>
          <leafValues>
            -1.7962154746055603e-01 3.7728205323219299e-01</leafValues></_>
        <_>
          <internalNodes>
            0 -1 156 -1.1026652646251023e-04</internalNodes>
          <leafValues>
            -4.4634255766868591e-01 1.3503965735435486e-01</leafValues></_>
        <_>
          <internalNodes>
            0 -1 18 7.0972502231597900e-02</internalNodes>
          <leafValues>
            -2.3847462236881256e-01 2.2375424206256866e-01</leafValues></_>
        <_>
          <internalNodes>
            0 -1 165 2.1135113202035427e-03</internalNodes>
          <leafValues>
            -1.5705038607120514e-01 3.5786569118499756e-01</leafValues></_>
        <_>
          <internalNodes>
            0 -1 105 2.1993154659867287e-02</internalNodes>
          <leafValues>
            -1.1496696621179581e-01 5.8308100700378418e-01</leafValues></_>
        <_>
          <internalNodes>
            0 -1 142 1.3008317910134792e-04</internalNodes>
          <leafValues>
            1.1436425894498825e-01 -4.7806054353713989e-01</leafValues></_>
        <_>
          <internalNodes>
            0 -1 104 -8.5454825311899185e-03</internalNodes>
          <leafValues>
            6.9901317358016968e-02 -6.3594406843185425e-01</leafValues></_>
        <_>
          <internalNodes>
            0 -1 159 -4.5307269319891930e-03</internalNodes>
          <leafValues>
            3.3728590607643127e-01 -1.6522446274757385e-01</leafValues></_>
        <_>
          <internalNodes>
            0 -1 94 8.2480646669864655e-02</internalNodes>
          <leafValues>
            -5.9030577540397644e-02 6.1031806468963623e-01</leafValues></_>
        <_>
          <internalNodes>
            0 -1 120 -7.3072565719485283e-03</internalNodes>
          <leafValues>
            4.2446997761726379e-01 -1.3116551935672760e-01</leafValues></_>
        <_>
          <internalNodes>
            0 -1 80 -1.1737885884940624e-02</internalNodes>
          <leafValues>
            4.1255405545234680e-01 -9.8194450139999390e-02</leafValues></_>
        <_>
          <internalNodes>
            0 -1 38 -2.3032368626445532e-03</internalNodes>
          <leafValues>
            2.6115873456001282e-01 -1.6044037044048309e-01</leafValues></_>
        <_>
          <internalNodes>
            0 -1 17 3.8433703593909740e-04</internalNodes>
          <leafValues>
            -1.8632930517196655e-01 2.2340963780879974e-01</leafValues></_>
        <_>
          <internalNodes>
            0 -1 179 -1.1860078200697899e-02</internalNodes>
          <leafValues>
            2.9894268512725830e-01 -1.3653528690338135e-01</leafValues></_>
        <_>
          <internalNodes>
            0 -1 36 -1.7061404883861542e-02</internalNodes>
          <leafValues>
            6.0977816581726074e-01 -7.6032847166061401e-02</leafValues></_>
        <_>
          <internalNodes>
            0 -1 67 -5.2975203841924667e-02</internalNodes>
          <leafValues>
            -4.8966804146766663e-01 1.0404936224222183e-01</leafValues></_>
        <_>
          <internalNodes>
            0 -1 34 -9.8981093615293503e-03</internalNodes>
          <leafValues>
            4.2747825384140015e-01 -1.1561870574951172e-01</leafValues></_>
        <_>
          <internalNodes>
            0 -1 57 -1.3637095689773560e-02</internalNodes>
          <leafValues>
            4.8662656545639038e-01 -8.6456052958965302e-02</leafValues></_>
        <_>
          <internalNodes>
            0 -1 27 1.2945929542183876e-02</internalNodes>
          <leafValues>
            1.0621946305036545e-01 -4.5667347311973572e-01</leafValues></_>
        <_>
          <internalNodes>
            0 -1 98 -4.4733360409736633e-03</internalNodes>
          <leafValues>
            2.9421287775039673e-01 -1.4697739481925964e-01</leafValues></_>
        <_>
          <internalNodes>
            0 -1 115 -1.6143155517056584e-04</internalNodes>
          <leafValues>
            -5.4681754112243652e-01 8.3375573158264160e-02</leafValues></_>
        <_>
          <internalNodes>
            0 -1 39 -2.3681432940065861e-03</internalNodes>
          <leafValues>
            2.5155964493751526e-01 -1.7599470913410187e-01</leafValues></_>
        <_>
          <internalNodes>
            0 -1 78 7.8709563240408897e-04</internalNodes>
          <leafValues>
            8.2762710750102997e-02 -5.7260882854461670e-01</leafValues></_>
        <_>
          <internalNodes>
            0 -1 177 1.3985668774694204e-03</internalNodes>
          <leafValues>
            4.9454763531684875e-02 -7.1901512145996094e-01</leafValues></_>
        <_>
          <internalNodes>
            0 -1 1 4.5970240607857704e-03</internalNodes>
          <leafValues>
            -2.7907234430313110e-01 1.3104604184627533e-01</leafValues></_>
        <_>
          <internalNodes>
            0 -1 8 -4.4173099100589752e-02</internalNodes>
          <leafValues>
            4.8320520669221878e-02 -7.2814351320266724e-01</leafValues></_></weakClassifiers></_>
    <!-- stage 6 -->
    <_>
      <maxWeakCount>37</maxWeakCount>
      <stageThreshold>-1.6200873851776123e+00</stageThreshold>
      <weakClassifiers>
        <_>
          <internalNodes>
            0 -1 32 -8.0092146992683411e-02</internalNodes>
          <leafValues>
            4.5344617962837219e-01 -4.6443682909011841e-01</leafValues></_>
        <_>
          <internalNodes>
            0 -1 88 1.0440634563565254e-02</internalNodes>
          <leafValues>
            -4.5175635814666748e-01 2.0339174568653107e-01</leafValues></_>
        <_>
          <internalNodes>
            0 -1 125 -2.7063626796007156e-02</internalNodes>
          <leafValues>
            5.2534931898117065e-01 -1.4016948640346527e-01</leafValues></_>
        <_>
          <internalNodes>
            0 -1 173 1.0653660632669926e-02</internalNodes>
          <leafValues>
            -1.0590141266584396e-01 5.4248088598251343e-01</leafValues></_>
        <_>
          <internalNodes>
            0 -1 81 1.9952464848756790e-02</internalNodes>
          <leafValues>
            1.0878866910934448e-01 -5.9125494956970215e-01</leafValues></_>
        <_>
          <internalNodes>
            0 -1 46 -4.5340605080127716e-02</internalNodes>
          <leafValues>
            6.4266806840896606e-01 -1.0891224443912506e-01</leafValues></_>
        <_>
          <internalNodes>
            0 -1 172 1.6488570719957352e-02</internalNodes>
          <leafValues>
            -5.7731006294488907e-02 5.8108514547348022e-01</leafValues></_>
        <_>
          <internalNodes>
            0 -1 60 5.8053177781403065e-04</internalNodes>
          <leafValues>
            -1.9207471609115601e-01 3.2286825776100159e-01</leafValues></_>
        <_>
          <internalNodes>
            0 -1 68 1.3378269970417023e-02</internalNodes>
          <leafValues>
            -1.6226965188980103e-01 3.8296094536781311e-01</leafValues></_>
        <_>
          <internalNodes>
            0 -1 44 1.1984971165657043e-01</internalNodes>
          <leafValues>
            1.2306777387857437e-01 -6.8533718585968018e-01</leafValues></_>
        <_>
          <internalNodes>
            0 -1 53 -3.1465575098991394e-02</internalNodes>
          <leafValues>
            -5.0463670492172241e-01 8.8801465928554535e-02</leafValues></_>
        <_>
          <internalNodes>
            0 -1 102 -1.2104470282793045e-02</internalNodes>
          <leafValues>
            4.6608886122703552e-01 -1.0391958802938461e-01</leafValues></_>
        <_>
          <internalNodes>
            0 -1 107 6.5862163901329041e-02</internalNodes>
          <leafValues>
            -6.6117063164710999e-02 8.2412266731262207e-01</leafValues></_>
        <_>
          <internalNodes>
            0 -1 148 -3.4694760688580573e-04</internalNodes>
          <leafValues>
            -3.6032751202583313e-01 1.4795009791851044e-01</leafValues></_>
        <_>
          <internalNodes>
            0 -1 150 1.7634675896260887e-04</internalNodes>
          <leafValues>
            7.5590148568153381e-02 -5.8259999752044678e-01</leafValues></_>
        <_>
          <internalNodes>
            0 -1 56 -7.1132155135273933e-03</internalNodes>
          <leafValues>
            3.6050412058830261e-01 -1.2737196683883667e-01</leafValues></_>
        <_>
          <internalNodes>
            0 -1 82 -8.1085246056318283e-03</internalNodes>
          <leafValues>
            4.0298637747764587e-01 -1.0360354185104370e-01</leafValues></_>
        <_>
          <internalNodes>
            0 -1 3 1.3667370658367872e-03</internalNodes>
          <leafValues>
            -2.6618376374244690e-01 1.6848471760749817e-01</leafValues></_>
        <_>
          <internalNodes>
            0 -1 143 3.4162595868110657e-02</internalNodes>
          <leafValues>
            7.4861891567707062e-02 -5.6392383575439453e-01</leafValues></_>
        <_>
          <internalNodes>
            0 -1 96 -1.4396016485989094e-03</internalNodes>
          <leafValues>
            2.4933652579784393e-01 -1.7542830109596252e-01</leafValues></_>
        <_>
          <internalNodes>
            0 -1 127 4.4660810381174088e-03</internalNodes>
          <leafValues>
            -1.5399795770645142e-01 3.0746367573738098e-01</leafValues></_>
        <_>
          <internalNodes>
            0 -1 146 -2.0690110977739096e-04</internalNodes>
          <leafValues>
            -5.5691820383071899e-01 7.9177387058734894e-02</leafValues></_>
        <_>
          <internalNodes>
            0 -1 135 2.2517342586070299e-04</internalNodes>
          <leafValues>
            7.7563591301441193e-02 -5.0936812162399292e-01</leafValues></_>
        <_>
          <internalNodes>
            0 -1 155 7.2921058163046837e-03</internalNodes>
          <leafValues>
            -9.0995572507381439e-02 4.8907014727592468e-01</leafValues></_>
        <_>
          <internalNodes>
            0 -1 41 -7.0236099418252707e-04</internalNodes>
          <leafValues>
            -5.9744375944137573e-01 6.7546389997005463e-02</leafValues></_>
        <_>
          <internalNodes>
            0 -1 29 -1.8501447048038244e-03</internalNodes>
          <leafValues>
            3.9228504896163940e-01 -1.1081970483064651e-01</leafValues></_>
        <_>
          <internalNodes>
            0 -1 19 -1.8516242504119873e-02</internalNodes>
          <leafValues>
            -6.4266681671142578e-01 6.0865435749292374e-02</leafValues></_>
        <_>
          <internalNodes>
            0 -1 35 2.3204741999506950e-02</internalNodes>
          <leafValues>
            -6.8390019237995148e-02 6.4972162246704102e-01</leafValues></_>
        <_>
          <internalNodes>
            0 -1 170 1.9719668198376894e-03</internalNodes>
          <leafValues>
            -1.3668973743915558e-01 3.0963221192359924e-01</leafValues></_>
        <_>
          <internalNodes>
            0 -1 182 -6.0186299378983676e-05</internalNodes>
          <leafValues>
            -4.5048156380653381e-01 9.2337287962436676e-02</leafValues></_>
        <_>
          <internalNodes>
            0 -1 4 -4.1497638449072838e-05</internalNodes>
          <leafValues>
            -4.5585009455680847e-01 8.3155117928981781e-02</leafValues></_>
        <_>
          <internalNodes>
            0 -1 166 1.5647508203983307e-02</internalNodes>
          <leafValues>
            -1.0964658111333847e-01 3.5068896412849426e-01</leafValues></_>
        <_>
          <internalNodes>
            0 -1 174 4.6389335766434669e-03</internalNodes>
          <leafValues>
            6.5511696040630341e-02 -6.5679728984832764e-01</leafValues></_>
        <_>
          <internalNodes>
            0 -1 10 2.2205896675586700e-03</internalNodes>
          <leafValues>
            4.0288697928190231e-02 -7.2168612480163574e-01</leafValues></_>
        <_>
          <internalNodes>
            0 -1 15 1.1434860527515411e-02</internalNodes>
          <leafValues>
            4.0905855596065521e-02 -6.9725668430328369e-01</leafValues></_>
        <_>
          <internalNodes>
            0 -1 24 1.3069561123847961e-01</internalNodes>
          <leafValues>
            5.5830486118793488e-02 -5.5063539743423462e-01</leafValues></_>
        <_>
          <internalNodes>
            0 -1 167 1.3829553499817848e-03</internalNodes>
          <leafValues>
            -1.3002043962478638e-01 2.6210585236549377e-01</leafValues></_></weakClassifiers></_></stages>
  <features>
    <_>
      <rects>
        <_>
          0 0 3 2 -1.</_>
        <_>
          0 1 3 1 2.</_></rects>
      <tilted>0</tilted></_>
    <_>
      <rects>
        <_>
          0 0 10 48 -1.</_>
        <_>
          5 0 5 48 2.</_></rects>
      <tilted>0</tilted></_>
    <_>
      <rects>
        <_>
          0 0 14 23 -1.</_>
        <_>
          7 0 7 23 2.</_></rects>
      <tilted>0</tilted></_>
    <_>
      <rects>
        <_>
          0 0 34 6 -1.</_>
        <_>
          0 3 34 3 2.</_></rects>
      <tilted>0</tilted></_>
    <_>
      <rects>
        <_>
          0 1 2 1 -1.</_>
        <_>
          1 1 1 1 2.</_></rects>
      <tilted>0</tilted></_>
    <_>
      <rects>
        <_>
          0 4 8 44 -1.</_>
        <_>
          4 4 4 44 2.</_></rects>
      <tilted>0</tilted></_>
    <_>
      <rects>
        <_>
          0 7 28 29 -1.</_>
        <_>
          14 7 14 29 2.</_></rects>
      <tilted>0</tilted></_>
    <_>
      <rects>
        <_>
          0 12 30 24 -1.</_>
        <_>
          15 12 15 24 2.</_></rects>
      <tilted>0</tilted></_>
    <_>
      <rects>
        <_>
          0 21 30 7 -1.</_>
        <_>
          10 21 10 7 2.</_></rects>
      <tilted>0</tilted></_>
    <_>
      <rects>
        <_>
          0 24 32 22 -1.</_>
        <_>
          0 24 16 11 2.</_>
        <_>
          16 35 16 11 2.</_></rects>
      <tilted>0</tilted></_>
    <_>
      <rects>
        <_>
          0 39 50 2 -1.</_>
        <_>
          0 40 50 1 2.</_></rects>
      <tilted>0</tilted></_>
    <_>
      <rects>
        <_>
          0 40 45 10 -1.</_>
        <_>
          0 45 45 5 2.</_></rects>
      <tilted>0</tilted></_>
    <_>
      <rects>
        <_>
          1 1 46 48 -1.</_>
        <_>
          1 1 23 24 2.</_>
        <_>
          24 25 23 24 2.</_></rects>
      <tilted>0</tilted></_>
    <_>
      <rects>
        <_>
          1 22 2 16 -1.</_>
        <_>
          2 22 1 16 2.</_></rects>
      <tilted>0</tilted></_>
    <_>
      <rects>
        <_>
          2 0 35 8 -1.</_>
        <_>
          2 4 35 4 2.</_></rects>
      <tilted>0</tilted></_>
    <_>
      <rects>
        <_>
          2 12 43 4 -1.</_>
        <_>
          2 14 43 2 2.</_></rects>
      <tilted>0</tilted></_>
    <_>
      <rects>
        <_>
          2 27 16 16 -1.</_>
        <_>
          2 27 8 8 2.</_>
        <_>
          10 35 8 8 2.</_></rects>
      <tilted>0</tilted></_>
    <_>
      <rects>
        <_>
          2 29 20 16 -1.</_>
        <_>
          2 29 10 8 2.</_>
        <_>
          12 37 10 8 2.</_></rects>
      <tilted>0</tilted></_>
    <_>
      <rects>
        <_>
          3 0 46 24 -1.</_>
        <_>
          3 12 46 12 2.</_></rects>
      <tilted>0</tilted></_>
    <_>
      <rects>
        <_>
          3 13 42 2 -1.</_>
        <_>
          24 13 21 2 2.</_></rects>
      <tilted>0</tilted></_>
    <_>
      <rects>
        <_>
          4 0 46 6 -1.</_>
        <_>
          4 3 46 3 2.</_></rects>
      <tilted>0</tilted></_>
    <_>
      <rects>
        <_>
          4 4 18 16 -1.</_>
        <_>
          4 4 9 8 2.</_>
        <_>
          13 12 9 8 2.</_></rects>
      <tilted>0</tilted></_>
    <_>
      <rects>
        <_>
          4 44 39 6 -1.</_>
        <_>
          4 47 39 3 2.</_></rects>
      <tilted>0</tilted></_>
    <_>
      <rects>
        <_>
          5 5 40 40 -1.</_>
        <_>
          25 5 20 40 2.</_></rects>
      <tilted>0</tilted></_>
    <_>
      <rects>
        <_>
          5 9 22 27 -1.</_>
        <_>
          16 9 11 27 2.</_></rects>
      <tilted>0</tilted></_>
    <_>
      <rects>
        <_>
          5 21 38 6 -1.</_>
        <_>
          5 21 19 3 2.</_>
        <_>
          24 24 19 3 2.</_></rects>
      <tilted>0</tilted></_>
    <_>
      <rects>
        <_>
          6 7 40 36 -1.</_>
        <_>
          26 7 20 36 2.</_></rects>
      <tilted>0</tilted></_>
    <_>
      <rects>
        <_>
          6 15 20 34 -1.</_>
        <_>
          6 32 20 17 2.</_></rects>
      <tilted>0</tilted></_>
    <_>
      <rects>
        <_>
          6 16 42 20 -1.</_>
        <_>
          27 16 21 20 2.</_></rects>
      <tilted>0</tilted></_>
    <_>
      <rects>
        <_>
          6 48 32 2 -1.</_>
        <_>
          6 49 32 1 2.</_></rects>
      <tilted>0</tilted></_>
    <_>
      <rects>
        <_>
          7 6 22 22 -1.</_>
        <_>
          7 6 11 11 2.</_>
        <_>
          18 17 11 11 2.</_></rects>
      <tilted>0</tilted></_>
    <_>
      <rects>
        <_>
          7 16 22 18 -1.</_>
        <_>
          18 16 11 18 2.</_></rects>
      <tilted>0</tilted></_>
    <_>
      <rects>
        <_>
          7 17 20 26 -1.</_>
        <_>
          7 17 10 13 2.</_>
        <_>
          17 30 10 13 2.</_></rects>
      <tilted>0</tilted></_>
    <_>
      <rects>
        <_>
          7 18 18 28 -1.</_>
        <_>
          7 18 9 14 2.</_>
        <_>
          16 32 9 14 2.</_></rects>
      <tilted>0</tilted></_>
    <_>
      <rects>
        <_>
          7 18 13 8 -1.</_>
        <_>
          7 22 13 4 2.</_></rects>
      <tilted>0</tilted></_>
    <_>
      <rects>
        <_>
          7 21 38 6 -1.</_>
        <_>
          7 21 19 3 2.</_>
        <_>
          26 24 19 3 2.</_></rects>
      <tilted>0</tilted></_>
    <_>
      <rects>
        <_>
          7 22 10 8 -1.</_>
        <_>
          7 26 10 4 2.</_></rects>
      <tilted>0</tilted></_>
    <_>
      <rects>
        <_>
          7 26 9 12 -1.</_>
        <_>
          7 32 9 6 2.</_></rects>
      <tilted>0</tilted></_>
    <_>
      <rects>
        <_>
          8 9 10 12 -1.</_>
        <_>
          8 15 10 6 2.</_></rects>
      <tilted>0</tilted></_>
    <_>
      <rects>
        <_>
          8 10 16 14 -1.</_>
        <_>
          8 10 8 7 2.</_>
        <_>
          16 17 8 7 2.</_></rects>
      <tilted>0</tilted></_>
    <_>
      <rects>
        <_>
          8 16 22 15 -1.</_>
        <_>
          19 16 11 15 2.</_></rects>
      <tilted>0</tilted></_>
    <_>
      <rects>
        <_>
          8 21 2 12 -1.</_>
        <_>
          9 21 1 12 2.</_></rects>
      <tilted>0</tilted></_>
    <_>
      <rects>
        <_>
          9 2 2 48 -1.</_>
        <_>
          10 2 1 48 2.</_></rects>
      <tilted>0</tilted></_>
    <_>
      <rects>
        <_>
          9 2 24 26 -1.</_>
        <_>
          9 15 24 13 2.</_></rects>
      <tilted>0</tilted></_>
    <_>
      <rects>
        <_>
          9 6 32 36 -1.</_>
        <_>
          9 6 16 18 2.</_>
        <_>
          25 24 16 18 2.</_></rects>
      <tilted>0</tilted></_>
    <_>
      <rects>
        <_>
          9 8 12 12 -1.</_>
        <_>
          9 8 6 6 2.</_>
        <_>
          15 14 6 6 2.</_></rects>
      <tilted>0</tilted></_>
    <_>
      <rects>
        <_>
          9 20 40 10 -1.</_>
        <_>
          9 20 20 5 2.</_>
        <_>
          29 25 20 5 2.</_></rects>
      <tilted>0</tilted></_>
    <_>
      <rects>
        <_>
          9 22 2 11 -1.</_>
        <_>
          10 22 1 11 2.</_></rects>
      <tilted>0</tilted></_>
    <_>
      <rects>
        <_>
          9 22 11 8 -1.</_>
        <_>
          9 26 11 4 2.</_></rects>
      <tilted>0</tilted></_>
    <_>
      <rects>
        <_>
          9 22 32 17 -1.</_>
        <_>
          25 22 16 17 2.</_></rects>
      <tilted>0</tilted></_>
    <_>
      <rects>
        <_>
          9 22 34 19 -1.</_>
        <_>
          26 22 17 19 2.</_></rects>
      <tilted>0</tilted></_>
    <_>
      <rects>
        <_>
          9 22 31 28 -1.</_>
        <_>
          9 36 31 14 2.</_></rects>
      <tilted>0</tilted></_>
    <_>
      <rects>
        <_>
          9 23 15 5 -1.</_>
        <_>
          14 23 5 5 2.</_></rects>
      <tilted>0</tilted></_>
    <_>
      <rects>
        <_>
          9 25 30 14 -1.</_>
        <_>
          24 25 15 14 2.</_></rects>
      <tilted>0</tilted></_>
    <_>
      <rects>
        <_>
          9 27 10 12 -1.</_>
        <_>
          9 27 5 6 2.</_>
        <_>
          14 33 5 6 2.</_></rects>
      <tilted>0</tilted></_>
    <_>
      <rects>
        <_>
          10 16 18 16 -1.</_>
        <_>
          19 16 9 16 2.</_></rects>
      <tilted>0</tilted></_>
    <_>
      <rects>
        <_>
          10 19 10 8 -1.</_>
        <_>
          10 23 10 4 2.</_></rects>
      <tilted>0</tilted></_>
    <_>
      <rects>
        <_>
          10 20 22 8 -1.</_>
        <_>
          10 20 11 4 2.</_>
        <_>
          21 24 11 4 2.</_></rects>
      <tilted>0</tilted></_>
    <_>
      <rects>
        <_>
          10 24 9 8 -1.</_>
        <_>
          10 28 9 4 2.</_></rects>
      <tilted>0</tilted></_>
    <_>
      <rects>
        <_>
          10 26 10 10 -1.</_>
        <_>
          10 31 10 5 2.</_></rects>
      <tilted>0</tilted></_>
    <_>
      <rects>
        <_>
          10 27 11 4 -1.</_>
        <_>
          10 29 11 2 2.</_></rects>
      <tilted>0</tilted></_>
    <_>
      <rects>
        <_>
          11 0 37 26 -1.</_>
        <_>
          11 13 37 13 2.</_></rects>
      <tilted>0</tilted></_>
    <_>
      <rects>
        <_>
          11 1 36 46 -1.</_>
        <_>
          11 1 18 23 2.</_>
        <_>
          29 24 18 23 2.</_></rects>
      <tilted>0</tilted></_>
    <_>
      <rects>
        <_>
          11 9 18 18 -1.</_>
        <_>
          11 9 9 9 2.</_>
        <_>
          20 18 9 9 2.</_></rects>
      <tilted>0</tilted></_>
    <_>
      <rects>
        <_>
          11 15 18 12 -1.</_>
        <_>
          11 15 9 6 2.</_>
        <_>
          20 21 9 6 2.</_></rects>
      <tilted>0</tilted></_>
    <_>
      <rects>
        <_>
          11 26 20 10 -1.</_>
        <_>
          11 26 10 5 2.</_>
        <_>
          21 31 10 5 2.</_></rects>
      <tilted>0</tilted></_>
    <_>
      <rects>
        <_>
          12 10 24 2 -1.</_>
        <_>
          12 10 12 1 2.</_>
        <_>
          24 11 12 1 2.</_></rects>
      <tilted>0</tilted></_>
    <_>
      <rects>
        <_>
          12 11 15 26 -1.</_>
        <_>
          12 24 15 13 2.</_></rects>
      <tilted>0</tilted></_>
    <_>
      <rects>
        <_>
          12 23 18 16 -1.</_>
        <_>
          12 23 9 8 2.</_>
        <_>
          21 31 9 8 2.</_></rects>
      <tilted>0</tilted></_>
    <_>
      <rects>
        <_>
          12 26 4 10 -1.</_>
        <_>
          12 31 4 5 2.</_></rects>
      <tilted>0</tilted></_>
    <_>
      <rects>
        <_>
          13 18 24 32 -1.</_>
        <_>
          13 34 24 16 2.</_></rects>
      <tilted>0</tilted></_>
    <_>
      <rects>
        <_>
          13 22 6 6 -1.</_>
        <_>
          13 25 6 3 2.</_></rects>
      <tilted>0</tilted></_>
    <_>
      <rects>
        <_>
          13 30 12 20 -1.</_>
        <_>
          13 30 6 10 2.</_>
        <_>
          19 40 6 10 2.</_></rects>
      <tilted>0</tilted></_>
    <_>
      <rects>
        <_>
          14 6 14 22 -1.</_>
        <_>
          14 6 7 11 2.</_>
        <_>
          21 17 7 11 2.</_></rects>
      <tilted>0</tilted></_>
    <_>
      <rects>
        <_>
          14 7 8 13 -1.</_>
        <_>
          18 7 4 13 2.</_></rects>
      <tilted>0</tilted></_>
    <_>
      <rects>
        <_>
          14 11 10 9 -1.</_>
        <_>
          19 11 5 9 2.</_></rects>
      <tilted>0</tilted></_>
    <_>
      <rects>
        <_>
          14 13 10 10 -1.</_>
        <_>
          14 13 5 5 2.</_>
        <_>
          19 18 5 5 2.</_></rects>
      <tilted>0</tilted></_>
    <_>
      <rects>
        <_>
          14 28 10 18 -1.</_>
        <_>
          14 28 5 9 2.</_>
        <_>
          19 37 5 9 2.</_></rects>
      <tilted>0</tilted></_>
    <_>
      <rects>
        <_>
          14 41 20 2 -1.</_>
        <_>
          14 42 20 1 2.</_></rects>
      <tilted>0</tilted></_>
    <_>
      <rects>
        <_>
          15 0 21 30 -1.</_>
        <_>
          15 15 21 15 2.</_></rects>
      <tilted>0</tilted></_>
    <_>
      <rects>
        <_>
          15 9 12 16 -1.</_>
        <_>
          15 9 6 8 2.</_>
        <_>
          21 17 6 8 2.</_></rects>
      <tilted>0</tilted></_>
    <_>
      <rects>
        <_>
          15 14 13 26 -1.</_>
        <_>
          15 27 13 13 2.</_></rects>
      <tilted>0</tilted></_>
    <_>
      <rects>
        <_>
          15 17 12 10 -1.</_>
        <_>
          15 17 6 5 2.</_>
        <_>
          21 22 6 5 2.</_></rects>
      <tilted>0</tilted></_>
    <_>
      <rects>
        <_>
          15 32 14 17 -1.</_>
        <_>
          22 32 7 17 2.</_></rects>
      <tilted>0</tilted></_>
    <_>
      <rects>
        <_>
          16 14 8 16 -1.</_>
        <_>
          16 14 4 8 2.</_>
        <_>
          20 22 4 8 2.</_></rects>
      <tilted>0</tilted></_>
    <_>
      <rects>
        <_>
          16 28 6 13 -1.</_>
        <_>
          19 28 3 13 2.</_></rects>
      <tilted>0</tilted></_>
    <_>
      <rects>
        <_>
          16 30 12 20 -1.</_>
        <_>
          22 30 6 20 2.</_></rects>
      <tilted>0</tilted></_>
    <_>
      <rects>
        <_>
          16 34 12 10 -1.</_>
        <_>
          22 34 6 10 2.</_></rects>
      <tilted>0</tilted></_>
    <_>
      <rects>
        <_>
          17 11 14 16 -1.</_>
        <_>
          17 19 14 8 2.</_></rects>
      <tilted>0</tilted></_>
    <_>
      <rects>
        <_>
          17 13 8 5 -1.</_>
        <_>
          21 13 4 5 2.</_></rects>
      <tilted>0</tilted></_>
    <_>
      <rects>
        <_>
          17 13 10 14 -1.</_>
        <_>
          17 13 5 7 2.</_>
        <_>
          22 20 5 7 2.</_></rects>
      <tilted>0</tilted></_>
    <_>
      <rects>
        <_>
          17 18 25 32 -1.</_>
        <_>
          17 34 25 16 2.</_></rects>
      <tilted>0</tilted></_>
    <_>
      <rects>
        <_>
          17 20 16 22 -1.</_>
        <_>
          17 31 16 11 2.</_></rects>
      <tilted>0</tilted></_>
    <_>
      <rects>
        <_>
          17 20 21 30 -1.</_>
        <_>
          17 35 21 15 2.</_></rects>
      <tilted>0</tilted></_>
    <_>
      <rects>
        <_>
          17 24 26 18 -1.</_>
        <_>
          17 24 13 9 2.</_>
        <_>
          30 33 13 9 2.</_></rects>
      <tilted>0</tilted></_>
    <_>
      <rects>
        <_>
          18 0 8 44 -1.</_>
        <_>
          22 0 4 44 2.</_></rects>
      <tilted>0</tilted></_>
    <_>
      <rects>
        <_>
          18 6 6 15 -1.</_>
        <_>
          21 6 3 15 2.</_></rects>
      <tilted>0</tilted></_>
    <_>
      <rects>
        <_>
          18 10 15 18 -1.</_>
        <_>
          18 19 15 9 2.</_></rects>
      <tilted>0</tilted></_>
    <_>
      <rects>
        <_>
          19 7 6 38 -1.</_>
        <_>
          22 7 3 38 2.</_></rects>
      <tilted>0</tilted></_>
    <_>
      <rects>
        <_>
          19 7 8 12 -1.</_>
        <_>
          23 7 4 12 2.</_></rects>
      <tilted>0</tilted></_>
    <_>
      <rects>
        <_>
          19 11 18 26 -1.</_>
        <_>
          19 24 18 13 2.</_></rects>
      <tilted>0</tilted></_>
    <_>
      <rects>
        <_>
          19 24 20 10 -1.</_>
        <_>
          19 24 10 5 2.</_>
        <_>
          29 29 10 5 2.</_></rects>
      <tilted>0</tilted></_>
    <_>
      <rects>
        <_>
          19 30 8 14 -1.</_>
        <_>
          23 30 4 14 2.</_></rects>
      <tilted>0</tilted></_>
    <_>
      <rects>
        <_>
          20 16 18 10 -1.</_>
        <_>
          20 16 9 5 2.</_>
        <_>
          29 21 9 5 2.</_></rects>
      <tilted>0</tilted></_>
    <_>
      <rects>
        <_>
          20 22 3 9 -1.</_>
        <_>
          21 22 1 9 2.</_></rects>
      <tilted>0</tilted></_>
    <_>
      <rects>
        <_>
          20 27 8 18 -1.</_>
        <_>
          24 27 4 18 2.</_></rects>
      <tilted>0</tilted></_>
    <_>
      <rects>
        <_>
          20 31 8 11 -1.</_>
        <_>
          24 31 4 11 2.</_></rects>
      <tilted>0</tilted></_>
    <_>
      <rects>
        <_>
          21 1 10 44 -1.</_>
        <_>
          21 1 5 22 2.</_>
        <_>
          26 23 5 22 2.</_></rects>
      <tilted>0</tilted></_>
    <_>
      <rects>
        <_>
          21 3 8 40 -1.</_>
        <_>
          21 3 4 20 2.</_>
        <_>
          25 23 4 20 2.</_></rects>
      <tilted>0</tilted></_>
    <_>
      <rects>
        <_>
          21 5 6 15 -1.</_>
        <_>
          24 5 3 15 2.</_></rects>
      <tilted>0</tilted></_>
    <_>
      <rects>
        <_>
          21 7 13 3 -1.</_>
        <_>
          21 8 13 1 2.</_></rects>
      <tilted>0</tilted></_>
    <_>
      <rects>
        <_>
          21 12 24 17 -1.</_>
        <_>
          29 12 8 17 2.</_></rects>
      <tilted>0</tilted></_>
    <_>
      <rects>
        <_>
          21 16 22 16 -1.</_>
        <_>
          32 16 11 16 2.</_></rects>
      <tilted>0</tilted></_>
    <_>
      <rects>
        <_>
          21 16 24 21 -1.</_>
        <_>
          33 16 12 21 2.</_></rects>
      <tilted>0</tilted></_>
    <_>
      <rects>
        <_>
          21 22 22 14 -1.</_>
        <_>
          21 22 11 7 2.</_>
        <_>
          32 29 11 7 2.</_></rects>
      <tilted>0</tilted></_>
    <_>
      <rects>
        <_>
          21 25 4 1 -1.</_>
        <_>
          23 25 2 1 2.</_></rects>
      <tilted>0</tilted></_>
    <_>
      <rects>
        <_>
          22 0 8 42 -1.</_>
        <_>
          22 0 4 21 2.</_>
        <_>
          26 21 4 21 2.</_></rects>
      <tilted>0</tilted></_>
    <_>
      <rects>
        <_>
          22 6 6 44 -1.</_>
        <_>
          22 6 3 22 2.</_>
        <_>
          25 28 3 22 2.</_></rects>
      <tilted>0</tilted></_>
    <_>
      <rects>
        <_>
          22 16 20 16 -1.</_>
        <_>
          32 16 10 16 2.</_></rects>
      <tilted>0</tilted></_>
    <_>
      <rects>
        <_>
          22 16 20 17 -1.</_>
        <_>
          32 16 10 17 2.</_></rects>
      <tilted>0</tilted></_>
    <_>
      <rects>
        <_>
          22 22 10 14 -1.</_>
        <_>
          22 22 5 7 2.</_>
        <_>
          27 29 5 7 2.</_></rects>
      <tilted>0</tilted></_>
    <_>
      <rects>
        <_>
          22 23 4 2 -1.</_>
        <_>
          24 23 2 2 2.</_></rects>
      <tilted>0</tilted></_>
    <_>
      <rects>
        <_>
          22 24 4 1 -1.</_>
        <_>
          24 24 2 1 2.</_></rects>
      <tilted>0</tilted></_>
    <_>
      <rects>
        <_>
          22 24 6 1 -1.</_>
        <_>
          25 24 3 1 2.</_></rects>
      <tilted>0</tilted></_>
    <_>
      <rects>
        <_>
          22 30 12 18 -1.</_>
        <_>
          28 30 6 18 2.</_></rects>
      <tilted>0</tilted></_>
    <_>
      <rects>
        <_>
          22 31 12 11 -1.</_>
        <_>
          28 31 6 11 2.</_></rects>
      <tilted>0</tilted></_>
    <_>
      <rects>
        <_>
          23 5 8 16 -1.</_>
        <_>
          27 5 4 16 2.</_></rects>
      <tilted>0</tilted></_>
    <_>
      <rects>
        <_>
          23 12 10 14 -1.</_>
        <_>
          23 12 5 7 2.</_>
        <_>
          28 19 5 7 2.</_></rects>
      <tilted>0</tilted></_>
    <_>
      <rects>
        <_>
          23 13 10 16 -1.</_>
        <_>
          23 13 5 8 2.</_>
        <_>
          28 21 5 8 2.</_></rects>
      <tilted>0</tilted></_>
    <_>
      <rects>
        <_>
          23 22 3 6 -1.</_>
        <_>
          23 24 3 2 2.</_></rects>
      <tilted>0</tilted></_>
    <_>
      <rects>
        <_>
          23 24 4 1 -1.</_>
        <_>
          25 24 2 1 2.</_></rects>
      <tilted>0</tilted></_>
    <_>
      <rects>
        <_>
          23 24 2 2 -1.</_>
        <_>
          23 25 2 1 2.</_></rects>
      <tilted>0</tilted></_>
    <_>
      <rects>
        <_>
          23 31 10 11 -1.</_>
        <_>
          28 31 5 11 2.</_></rects>
      <tilted>0</tilted></_>
    <_>
      <rects>
        <_>
          24 6 12 10 -1.</_>
        <_>
          30 6 6 10 2.</_></rects>
      <tilted>0</tilted></_>
    <_>
      <rects>
        <_>
          24 22 2 2 -1.</_>
        <_>
          24 23 2 1 2.</_></rects>
      <tilted>0</tilted></_>
    <_>
      <rects>
        <_>
          24 22 2 4 -1.</_>
        <_>
          24 24 2 2 2.</_></rects>
      <tilted>0</tilted></_>
    <_>
      <rects>
        <_>
          24 22 12 12 -1.</_>
        <_>
          24 22 6 6 2.</_>
        <_>
          30 28 6 6 2.</_></rects>
      <tilted>0</tilted></_>
    <_>
      <rects>
        <_>
          24 23 4 2 -1.</_>
        <_>
          24 23 2 1 2.</_>
        <_>
          26 24 2 1 2.</_></rects>
      <tilted>0</tilted></_>
    <_>
      <rects>
        <_>
          24 23 2 4 -1.</_>
        <_>
          24 25 2 2 2.</_></rects>
      <tilted>0</tilted></_>
    <_>
      <rects>
        <_>
          24 24 2 1 -1.</_>
        <_>
          25 24 1 1 2.</_></rects>
      <tilted>0</tilted></_>
    <_>
      <rects>
        <_>
          24 24 4 1 -1.</_>
        <_>
          26 24 2 1 2.</_></rects>
      <tilted>0</tilted></_>
    <_>
      <rects>
        <_>
          24 24 2 2 -1.</_>
        <_>
          24 25 2 1 2.</_></rects>
      <tilted>0</tilted></_>
    <_>
      <rects>
        <_>
          24 24 2 4 -1.</_>
        <_>
          24 26 2 2 2.</_></rects>
      <tilted>0</tilted></_>
    <_>
      <rects>
        <_>
          25 13 12 26 -1.</_>
        <_>
          25 26 12 13 2.</_></rects>
      <tilted>0</tilted></_>
    <_>
      <rects>
        <_>
          25 15 18 30 -1.</_>
        <_>
          25 15 9 15 2.</_>
        <_>
          34 30 9 15 2.</_></rects>
      <tilted>0</tilted></_>
    <_>
      <rects>
        <_>
          25 22 1 2 -1.</_>
        <_>
          25 23 1 1 2.</_></rects>
      <tilted>0</tilted></_>
    <_>
      <rects>
        <_>
          25 22 1 4 -1.</_>
        <_>
          25 24 1 2 2.</_></rects>
      <tilted>0</tilted></_>
    <_>
      <rects>
        <_>
          25 23 1 4 -1.</_>
        <_>
          25 25 1 2 2.</_></rects>
      <tilted>0</tilted></_>
    <_>
      <rects>
        <_>
          25 23 1 8 -1.</_>
        <_>
          25 27 1 4 2.</_></rects>
      <tilted>0</tilted></_>
    <_>
      <rects>
        <_>
          25 24 1 4 -1.</_>
        <_>
          25 26 1 2 2.</_></rects>
      <tilted>0</tilted></_>
    <_>
      <rects>
        <_>
          25 24 4 1 -1.</_>
        <_>
          27 24 2 1 2.</_></rects>
      <tilted>0</tilted></_>
    <_>
      <rects>
        <_>
          25 26 2 4 -1.</_>
        <_>
          25 28 2 2 2.</_></rects>
      <tilted>0</tilted></_>
    <_>
      <rects>
        <_>
          26 7 4 37 -1.</_>
        <_>
          28 7 2 37 2.</_></rects>
      <tilted>0</tilted></_>
    <_>
      <rects>
        <_>
          26 11 10 20 -1.</_>
        <_>
          26 11 5 10 2.</_>
        <_>
          31 21 5 10 2.</_></rects>
      <tilted>0</tilted></_>
    <_>
      <rects>
        <_>
          26 16 14 28 -1.</_>
        <_>
          26 16 7 14 2.</_>
        <_>
          33 30 7 14 2.</_></rects>
      <tilted>0</tilted></_>
    <_>
      <rects>
        <_>
          26 23 8 10 -1.</_>
        <_>
          26 23 4 5 2.</_>
        <_>
          30 28 4 5 2.</_></rects>
      <tilted>0</tilted></_>
    <_>
      <rects>
        <_>
          26 24 1 4 -1.</_>
        <_>
          26 26 1 2 2.</_></rects>
      <tilted>0</tilted></_>
    <_>
      <rects>
        <_>
          27 4 10 16 -1.</_>
        <_>
          32 4 5 16 2.</_></rects>
      <tilted>0</tilted></_>
    <_>
      <rects>
        <_>
          27 21 16 8 -1.</_>
        <_>
          27 21 8 4 2.</_>
        <_>
          35 25 8 4 2.</_></rects>
      <tilted>0</tilted></_>
    <_>
      <rects>
        <_>
          27 25 14 12 -1.</_>
        <_>
          27 25 7 6 2.</_>
        <_>
          34 31 7 6 2.</_></rects>
      <tilted>0</tilted></_>
    <_>
      <rects>
        <_>
          27 26 18 14 -1.</_>
        <_>
          27 26 9 7 2.</_>
        <_>
          36 33 9 7 2.</_></rects>
      <tilted>0</tilted></_>
    <_>
      <rects>
        <_>
          27 27 16 14 -1.</_>
        <_>
          27 27 8 7 2.</_>
        <_>
          35 34 8 7 2.</_></rects>
      <tilted>0</tilted></_>
    <_>
      <rects>
        <_>
          28 8 18 12 -1.</_>
        <_>
          28 8 9 6 2.</_>
        <_>
          37 14 9 6 2.</_></rects>
      <tilted>0</tilted></_>
    <_>
      <rects>
        <_>
          28 12 10 10 -1.</_>
        <_>
          28 12 5 5 2.</_>
        <_>
          33 17 5 5 2.</_></rects>
      <tilted>0</tilted></_>
    <_>
      <rects>
        <_>
          28 17 17 6 -1.</_>
        <_>
          28 20 17 3 2.</_></rects>
      <tilted>0</tilted></_>
    <_>
      <rects>
        <_>
          28 27 6 14 -1.</_>
        <_>
          31 27 3 14 2.</_></rects>
      <tilted>0</tilted></_>
    <_>
      <rects>
        <_>
          29 1 18 16 -1.</_>
        <_>
          29 1 9 8 2.</_>
        <_>
          38 9 9 8 2.</_></rects>
      <tilted>0</tilted></_>
    <_>
      <rects>
        <_>
          30 14 16 6 -1.</_>
        <_>
          30 14 8 3 2.</_>
        <_>
          38 17 8 3 2.</_></rects>
      <tilted>0</tilted></_>
    <_>
      <rects>
        <_>
          30 24 15 6 -1.</_>
        <_>
          30 27 15 3 2.</_></rects>
      <tilted>0</tilted></_>
    <_>
      <rects>
        <_>
          30 26 11 8 -1.</_>
        <_>
          30 30 11 4 2.</_></rects>
      <tilted>0</tilted></_>
    <_>
      <rects>
        <_>
          31 30 11 8 -1.</_>
        <_>
          31 34 11 4 2.</_></rects>
      <tilted>0</tilted></_>
    <_>
      <rects>
        <_>
          32 17 6 10 -1.</_>
        <_>
          32 22 6 5 2.</_></rects>
      <tilted>0</tilted></_>
    <_>
      <rects>
        <_>
          32 18 10 10 -1.</_>
        <_>
          32 23 10 5 2.</_></rects>
      <tilted>0</tilted></_>
    <_>
      <rects>
        <_>
          32 23 7 10 -1.</_>
        <_>
          32 28 7 5 2.</_></rects>
      <tilted>0</tilted></_>
    <_>
      <rects>
        <_>
          38 12 4 22 -1.</_>
        <_>
          40 12 2 22 2.</_></rects>
      <tilted>0</tilted></_>
    <_>
      <rects>
        <_>
          39 18 2 10 -1.</_>
        <_>
          40 18 1 10 2.</_></rects>
      <tilted>0</tilted></_>
    <_>
      <rects>
        <_>
          42 5 8 40 -1.</_>
        <_>
          46 5 4 40 2.</_></rects>
      <tilted>0</tilted></_>
    <_>
      <rects>
        <_>
          43 10 2 30 -1.</_>
        <_>
          44 10 1 30 2.</_></rects>
      <tilted>0</tilted></_>
    <_>
      <rects>
        <_>
          44 2 6 47 -1.</_>
        <_>
          47 2 3 47 2.</_></rects>
      <tilted>0</tilted></_>
    <_>
      <rects>
        <_>
          44 3 6 47 -1.</_>
        <_>
          47 3 3 47 2.</_></rects>
      <tilted>0</tilted></_>
    <_>
      <rects>
        <_>
          46 6 4 38 -1.</_>
        <_>
          48 6 2 38 2.</_></rects>
      <tilted>0</tilted></_>
    <_>
      <rects>
        <_>
          48 44 1 6 -1.</_>
        <_>
          48 46 1 2 2.</_></rects>
      <tilted>0</tilted></_>
    <_>
      <rects>
        <_>
          48 47 2 1 -1.</_>
        <_>
          49 47 1 1 2.</_></rects>
      <tilted>0</tilted></_></features></cascade>
</opencv_storage>
